digraph Tree {
node [shape=box, style="filled, rounded", color="black", fontname="helvetica"] ;
edge [fontname="helvetica"] ;
0 [label="x99 <= 0.5\ngini = 0.5\nsamples = 1012738\nvalue = [519818, 492920]", fillcolor="#fef8f5"] ;
1 [label="x100 <= 0.007\ngini = 0.452\nsamples = 793378\nvalue = [519818, 273560]", fillcolor="#f3c3a1"] ;
0 -> 1 [labeldistance=2.5, labelangle=45, headlabel="True"] ;
2 [label="gini = 0.0\nsamples = 74071\nvalue = [0, 74071]", fillcolor="#399de5"] ;
1 -> 2 ;
3 [label="x78 <= 0.007\ngini = 0.401\nsamples = 719307\nvalue = [519818, 199489]", fillcolor="#efb185"] ;
1 -> 3 ;
4 [label="gini = 0.0\nsamples = 36113\nvalue = [0, 36113]", fillcolor="#399de5"] ;
3 -> 4 ;
5 [label="x89 <= 0.007\ngini = 0.364\nsamples = 683194\nvalue = [519818, 163376]", fillcolor="#eda977"] ;
3 -> 5 ;
6 [label="gini = 0.0\nsamples = 17600\nvalue = [0, 17600]", fillcolor="#399de5"] ;
5 -> 6 ;
7 [label="x104 <= 0.5\ngini = 0.342\nsamples = 665594\nvalue = [519818, 145776]", fillcolor="#eca471"] ;
5 -> 7 ;
8 [label="x67 <= 0.007\ngini = 0.28\nsamples = 527681\nvalue = [438708, 88973]", fillcolor="#ea9b61"] ;
7 -> 8 ;
9 [label="gini = 0.0\nsamples = 5649\nvalue = [0, 5649]", fillcolor="#399de5"] ;
8 -> 9 ;
10 [label="x75 <= 0.257\ngini = 0.268\nsamples = 522032\nvalue = [438708, 83324]", fillcolor="#ea995f"] ;
8 -> 10 ;
11 [label="x86 <= 0.261\ngini = 0.21\nsamples = 423227\nvalue = [372850, 50377]", fillcolor="#e99254"] ;
10 -> 11 ;
12 [label="x1 <= 0.007\ngini = 0.162\nsamples = 349261\nvalue = [318273, 30988]", fillcolor="#e88d4c"] ;
11 -> 12 ;
13 [label="gini = 0.0\nsamples = 1934\nvalue = [0, 1934]", fillcolor="#399de5"] ;
12 -> 13 ;
14 [label="x42 <= 0.88\ngini = 0.153\nsamples = 347327\nvalue = [318273, 29054]", fillcolor="#e78d4b"] ;
12 -> 14 ;
15 [label="x97 <= 0.825\ngini = 0.147\nsamples = 345484\nvalue = [317888, 27596]", fillcolor="#e78c4a"] ;
14 -> 15 ;
16 [label="x23 <= 0.007\ngini = 0.138\nsamples = 342000\nvalue = [316410, 25590]", fillcolor="#e78b49"] ;
15 -> 16 ;
17 [label="gini = 0.0\nsamples = 963\nvalue = [0, 963]", fillcolor="#399de5"] ;
16 -> 17 ;
18 [label="gini = 0.134\nsamples = 341037\nvalue = [316410, 24627]", fillcolor="#e78b48"] ;
16 -> 18 ;
19 [label="gini = 0.489\nsamples = 3484\nvalue = [1478, 2006]", fillcolor="#cbe5f8"] ;
15 -> 19 ;
20 [label="gini = 0.331\nsamples = 1843\nvalue = [385, 1458]", fillcolor="#6db7ec"] ;
14 -> 20 ;
21 [label="x81 <= 0.504\ngini = 0.387\nsamples = 73966\nvalue = [54577, 19389]", fillcolor="#eeae7f"] ;
11 -> 21 ;
22 [label="x82 <= 0.441\ngini = 0.289\nsamples = 66190\nvalue = [54577, 11613]", fillcolor="#eb9c63"] ;
21 -> 22 ;
23 [label="x84 <= 0.857\ngini = 0.18\nsamples = 55193\nvalue = [49666, 5527]", fillcolor="#e88f4f"] ;
22 -> 23 ;
24 [label="gini = 0.356\nsamples = 21703\nvalue = [16681, 5022]", fillcolor="#eda775"] ;
23 -> 24 ;
25 [label="gini = 0.03\nsamples = 33490\nvalue = [32985, 505]", fillcolor="#e5833c"] ;
23 -> 25 ;
26 [label="gini = 0.494\nsamples = 10997\nvalue = [4911, 6086]", fillcolor="#d9ecfa"] ;
22 -> 26 ;
27 [label="gini = 0.0\nsamples = 7776\nvalue = [0, 7776]", fillcolor="#399de5"] ;
21 -> 27 ;
28 [label="x70 <= 0.504\ngini = 0.445\nsamples = 98805\nvalue = [65858, 32947]", fillcolor="#f2c09c"] ;
10 -> 28 ;
29 [label="x71 <= 0.441\ngini = 0.356\nsamples = 85677\nvalue = [65858, 19819]", fillcolor="#eda775"] ;
28 -> 29 ;
30 [label="x73 <= 0.857\ngini = 0.232\nsamples = 68450\nvalue = [59266, 9184]", fillcolor="#e99558"] ;
29 -> 30 ;
31 [label="x69 <= 0.002\ngini = 0.408\nsamples = 28528\nvalue = [20366, 8162]", fillcolor="#efb388"] ;
30 -> 31 ;
32 [label="gini = 0.069\nsamples = 19512\nvalue = [18814, 698]", fillcolor="#e68640"] ;
31 -> 32 ;
33 [label="gini = 0.285\nsamples = 9016\nvalue = [1552, 7464]", fillcolor="#62b1ea"] ;
31 -> 33 ;
34 [label="gini = 0.05\nsamples = 39922\nvalue = [38900, 1022]", fillcolor="#e6843e"] ;
30 -> 34 ;
35 [label="gini = 0.472\nsamples = 17227\nvalue = [6592, 10635]", fillcolor="#b4daf5"] ;
29 -> 35 ;
36 [label="gini = 0.0\nsamples = 13128\nvalue = [0, 13128]", fillcolor="#399de5"] ;
28 -> 36 ;
37 [label="x103 <= 0.131\ngini = 0.484\nsamples = 137913\nvalue = [81110, 56803]", fillcolor="#f7d9c4"] ;
7 -> 37 ;
38 [label="x106 <= 0.535\ngini = 0.367\nsamples = 99872\nvalue = [75710, 24162]", fillcolor="#eda978"] ;
37 -> 38 ;
39 [label="x102 <= 0.022\ngini = 0.306\nsamples = 93345\nvalue = [75710, 17635]", fillcolor="#eb9e67"] ;
38 -> 39 ;
40 [label="x45 <= 0.007\ngini = 0.209\nsamples = 65704\nvalue = [57917, 7787]", fillcolor="#e89254"] ;
39 -> 40 ;
41 [label="gini = 0.0\nsamples = 1150\nvalue = [0, 1150]", fillcolor="#399de5"] ;
40 -> 41 ;
42 [label="x107 <= 0.078\ngini = 0.184\nsamples = 64554\nvalue = [57917, 6637]", fillcolor="#e88f50"] ;
40 -> 42 ;
43 [label="gini = 0.381\nsamples = 17148\nvalue = [12755, 4393]", fillcolor="#eeac7d"] ;
42 -> 43 ;
44 [label="gini = 0.09\nsamples = 47406\nvalue = [45162, 2244]", fillcolor="#e68743"] ;
42 -> 44 ;
45 [label="gini = 0.459\nsamples = 27641\nvalue = [17793, 9848]", fillcolor="#f3c7a7"] ;
39 -> 45 ;
46 [label="gini = 0.0\nsamples = 6527\nvalue = [0, 6527]", fillcolor="#399de5"] ;
38 -> 46 ;
47 [label="x109 <= 0.01\ngini = 0.244\nsamples = 38041\nvalue = [5400, 32641]", fillcolor="#5aade9"] ;
37 -> 47 ;
48 [label="gini = 0.329\nsamples = 5523\nvalue = [4378, 1145]", fillcolor="#eca26d"] ;
47 -> 48 ;
49 [label="gini = 0.061\nsamples = 32518\nvalue = [1022, 31496]", fillcolor="#3fa0e6"] ;
47 -> 49 ;
50 [label="gini = 0.0\nsamples = 219360\nvalue = [0, 219360]", fillcolor="#399de5"] ;
0 -> 50 [labeldistance=2.5, labelangle=-45, headlabel="False"] ;
}